digraph Tree {
node [shape=box] ;
0 [label="chla_lag1 <= 16.773\nmse = 46.969\nsamples = 37\nvalue = 16.771"] ;
1 [label="chla_lag1 <= 8.812\nmse = 23.224\nsamples = 25\nvalue = 13.794"] ;
0 -> 1 [labeldistance=2.5, labelangle=45, headlabel="True"] ;
2 [label="chla_lag1 <= 6.123\nmse = 4.28\nsamples = 6\nvalue = 9.039"] ;
1 -> 2 ;
3 [label="chla_lag1 <= 5.723\nmse = 0.001\nsamples = 2\nvalue = 6.198"] ;
2 -> 3 ;
4 [label="mse = 0.0\nsamples = 1\nvalue = 6.229"] ;
3 -> 4 ;
5 [label="mse = 0.0\nsamples = 1\nvalue = 6.167"] ;
3 -> 5 ;
6 [label="chla_lag1 <= 7.654\nmse = 0.365\nsamples = 4\nvalue = 10.46"] ;
2 -> 6 ;
7 [label="chla_lag1 <= 6.671\nmse = 0.341\nsamples = 2\nvalue = 10.172"] ;
6 -> 7 ;
8 [label="mse = 0.0\nsamples = 1\nvalue = 10.756"] ;
7 -> 8 ;
9 [label="mse = -0.0\nsamples = 1\nvalue = 9.588"] ;
7 -> 9 ;
10 [label="chla_lag1 <= 8.404\nmse = 0.223\nsamples = 2\nvalue = 10.748"] ;
6 -> 10 ;
11 [label="mse = 0.0\nsamples = 1\nvalue = 11.22"] ;
10 -> 11 ;
12 [label="mse = 0.0\nsamples = 1\nvalue = 10.275"] ;
10 -> 12 ;
13 [label="chla_lag1 <= 12.512\nmse = 19.812\nsamples = 19\nvalue = 15.295"] ;
1 -> 13 ;
14 [label="chla_lag1 <= 11.281\nmse = 22.116\nsamples = 8\nvalue = 17.683"] ;
13 -> 14 ;
15 [label="chla_lag1 <= 9.2\nmse = 8.901\nsamples = 6\nvalue = 15.605"] ;
14 -> 15 ;
16 [label="mse = 0.0\nsamples = 1\nvalue = 21.233"] ;
15 -> 16 ;
17 [label="chla_lag1 <= 9.814\nmse = 3.078\nsamples = 5\nvalue = 14.479"] ;
15 -> 17 ;
18 [label="chla_lag1 <= 9.5\nmse = 0.401\nsamples = 2\nvalue = 16.333"] ;
17 -> 18 ;
19 [label="mse = 0.0\nsamples = 1\nvalue = 16.967"] ;
18 -> 19 ;
20 [label="mse = 0.0\nsamples = 1\nvalue = 15.7"] ;
18 -> 20 ;
21 [label="chla_lag1 <= 10.571\nmse = 1.041\nsamples = 3\nvalue = 13.243"] ;
17 -> 21 ;
22 [label="chla_lag1 <= 10.104\nmse = 0.478\nsamples = 2\nvalue = 12.642"] ;
21 -> 22 ;
23 [label="mse = 0.0\nsamples = 1\nvalue = 13.333"] ;
22 -> 23 ;
24 [label="mse = 0.0\nsamples = 1\nvalue = 11.95"] ;
22 -> 24 ;
25 [label="mse = 0.0\nsamples = 1\nvalue = 14.444"] ;
21 -> 25 ;
26 [label="chla_lag1 <= 11.91\nmse = 9.902\nsamples = 2\nvalue = 23.92"] ;
14 -> 26 ;
27 [label="mse = 0.0\nsamples = 1\nvalue = 27.067"] ;
26 -> 27 ;
28 [label="mse = -0.0\nsamples = 1\nvalue = 20.773"] ;
26 -> 28 ;
29 [label="chla_lag1 <= 16.03\nmse = 10.972\nsamples = 11\nvalue = 13.558"] ;
13 -> 29 ;
30 [label="chla_lag1 <= 15.173\nmse = 12.055\nsamples = 9\nvalue = 13.073"] ;
29 -> 30 ;
31 [label="chla_lag1 <= 13.567\nmse = 11.899\nsamples = 7\nvalue = 13.907"] ;
30 -> 31 ;
32 [label="chla_lag1 <= 13.121\nmse = 2.446\nsamples = 3\nvalue = 13.054"] ;
31 -> 32 ;
33 [label="mse = 0.0\nsamples = 1\nvalue = 15.256"] ;
32 -> 33 ;
34 [label="chla_lag1 <= 13.41\nmse = 0.035\nsamples = 2\nvalue = 11.953"] ;
32 -> 34 ;
35 [label="mse = 0.0\nsamples = 1\nvalue = 12.14"] ;
34 -> 35 ;
36 [label="mse = 0.0\nsamples = 1\nvalue = 11.767"] ;
34 -> 36 ;
37 [label="chla_lag1 <= 14.85\nmse = 18.033\nsamples = 4\nvalue = 14.548"] ;
31 -> 37 ;
38 [label="chla_lag1 <= 14.15\nmse = 23.003\nsamples = 3\nvalue = 15.058"] ;
37 -> 38 ;
39 [label="mse = 34.476\nsamples = 2\nvalue = 14.962"] ;
38 -> 39 ;
40 [label="mse = 0.0\nsamples = 1\nvalue = 15.25"] ;
38 -> 40 ;
41 [label="mse = 0.0\nsamples = 1\nvalue = 13.017"] ;
37 -> 41 ;
42 [label="chla_lag1 <= 15.435\nmse = 1.632\nsamples = 2\nvalue = 10.152"] ;
30 -> 42 ;
43 [label="mse = 0.0\nsamples = 1\nvalue = 8.875"] ;
42 -> 43 ;
44 [label="mse = 0.0\nsamples = 1\nvalue = 11.43"] ;
42 -> 44 ;
45 [label="chla_lag1 <= 16.441\nmse = 0.266\nsamples = 2\nvalue = 15.743"] ;
29 -> 45 ;
46 [label="mse = 0.0\nsamples = 1\nvalue = 16.258"] ;
45 -> 46 ;
47 [label="mse = -0.0\nsamples = 1\nvalue = 15.227"] ;
45 -> 47 ;
48 [label="chla_lag1 <= 23.467\nmse = 39.492\nsamples = 12\nvalue = 22.974"] ;
0 -> 48 [labeldistance=2.5, labelangle=-45, headlabel="False"] ;
49 [label="chla_lag1 <= 21.915\nmse = 37.42\nsamples = 10\nvalue = 24.216"] ;
48 -> 49 ;
50 [label="chla_lag1 <= 17.419\nmse = 13.126\nsamples = 8\nvalue = 21.92"] ;
49 -> 50 ;
51 [label="mse = 0.0\nsamples = 1\nvalue = 27.233"] ;
50 -> 51 ;
52 [label="chla_lag1 <= 19.825\nmse = 10.392\nsamples = 7\nvalue = 21.161"] ;
50 -> 52 ;
53 [label="chla_lag1 <= 18.925\nmse = 11.39\nsamples = 4\nvalue = 19.831"] ;
52 -> 53 ;
54 [label="chla_lag1 <= 17.954\nmse = 5.343\nsamples = 3\nvalue = 21.4"] ;
53 -> 54 ;
55 [label="mse = 0.0\nsamples = 1\nvalue = 18.167"] ;
54 -> 55 ;
56 [label="chla_lag1 <= 18.468\nmse = 0.174\nsamples = 2\nvalue = 23.017"] ;
54 -> 56 ;
57 [label="mse = 0.0\nsamples = 1\nvalue = 22.6"] ;
56 -> 57 ;
58 [label="mse = 0.0\nsamples = 1\nvalue = 23.433"] ;
56 -> 58 ;
59 [label="mse = 0.0\nsamples = 1\nvalue = 15.125"] ;
53 -> 59 ;
60 [label="chla_lag1 <= 21.3\nmse = 3.562\nsamples = 3\nvalue = 22.933"] ;
52 -> 60 ;
61 [label="chla_lag1 <= 20.8\nmse = 0.902\nsamples = 2\nvalue = 24.15"] ;
60 -> 61 ;
62 [label="mse = 0.0\nsamples = 1\nvalue = 23.2"] ;
61 -> 62 ;
63 [label="mse = -0.0\nsamples = 1\nvalue = 25.1"] ;
61 -> 63 ;
64 [label="mse = 0.0\nsamples = 1\nvalue = 20.5"] ;
60 -> 64 ;
65 [label="chla_lag1 <= 22.632\nmse = 29.16\nsamples = 2\nvalue = 33.4"] ;
49 -> 65 ;
66 [label="mse = 0.0\nsamples = 1\nvalue = 38.8"] ;
65 -> 66 ;
67 [label="mse = -0.0\nsamples = 1\nvalue = 28.0"] ;
65 -> 67 ;
68 [label="chla_lag1 <= 30.133\nmse = 3.61\nsamples = 2\nvalue = 16.767"] ;
48 -> 68 ;
69 [label="mse = 0.0\nsamples = 1\nvalue = 18.667"] ;
68 -> 69 ;
70 [label="mse = 0.0\nsamples = 1\nvalue = 14.867"] ;
68 -> 70 ;
}