digraph Tree {
node [shape=box] ;
0 [label="WindDays_under_Q0.4 <= 43.5\nmse = 1.458\nsamples = 22\nvalue = 1.071"] ;
1 [label="WindDays_under_Q0.4 <= 36.5\nmse = 0.467\nsamples = 17\nvalue = 0.69"] ;
0 -> 1 [labeldistance=2.5, labelangle=45, headlabel="True"] ;
3 [label="WindDays_under_Q0.4 <= 34.5\nmse = 0.328\nsamples = 8\nvalue = 0.534"] ;
1 -> 3 ;
7 [label="mse = 0.401\nsamples = 5\nvalue = 0.647"] ;
3 -> 7 ;
8 [label="mse = 0.151\nsamples = 3\nvalue = 0.345"] ;
3 -> 8 ;
4 [label="WindDays_under_Q0.4 <= 39.5\nmse = 0.549\nsamples = 9\nvalue = 0.83"] ;
1 -> 4 ;
5 [label="mse = 0.34\nsamples = 3\nvalue = 1.318"] ;
4 -> 5 ;
6 [label="mse = 0.474\nsamples = 6\nvalue = 0.586"] ;
4 -> 6 ;
2 [label="mse = 2.659\nsamples = 5\nvalue = 2.367"] ;
0 -> 2 [labeldistance=2.5, labelangle=-45, headlabel="False"] ;
}