digraph Tree {
node [shape=box] ;
0 [label="chla <= 17.212\nmse = 1.261\nsamples = 21\nvalue = 0.961"] ;
1 [label="chla <= 12.578\nmse = 0.055\nsamples = 12\nvalue = 0.263"] ;
0 -> 1 [labeldistance=2.5, labelangle=45, headlabel="True"] ;
2 [label="chla <= 8.983\nmse = 0.002\nsamples = 6\nvalue = 0.108"] ;
1 -> 2 ;
3 [label="mse = 0.0\nsamples = 1\nvalue = 0.026"] ;
2 -> 3 ;
4 [label="chla <= 11.953\nmse = 0.001\nsamples = 5\nvalue = 0.124"] ;
2 -> 4 ;
5 [label="chla <= 10.155\nmse = 0.0\nsamples = 4\nvalue = 0.114"] ;
4 -> 5 ;
6 [label="mse = 0.0\nsamples = 1\nvalue = 0.087"] ;
5 -> 6 ;
7 [label="chla <= 11.325\nmse = 0.0\nsamples = 3\nvalue = 0.124"] ;
5 -> 7 ;
8 [label="mse = 0.0\nsamples = 1\nvalue = 0.14"] ;
7 -> 8 ;
9 [label="chla <= 11.598\nmse = 0.0\nsamples = 2\nvalue = 0.116"] ;
7 -> 9 ;
10 [label="mse = 0.0\nsamples = 1\nvalue = 0.124"] ;
9 -> 10 ;
11 [label="mse = -0.0\nsamples = 1\nvalue = 0.108"] ;
9 -> 11 ;
12 [label="mse = 0.0\nsamples = 1\nvalue = 0.165"] ;
4 -> 12 ;
13 [label="chla <= 15.176\nmse = 0.06\nsamples = 6\nvalue = 0.418"] ;
1 -> 13 ;
14 [label="chla <= 14.996\nmse = 0.065\nsamples = 3\nvalue = 0.54"] ;
13 -> 14 ;
15 [label="chla <= 13.942\nmse = 0.004\nsamples = 2\nvalue = 0.363"] ;
14 -> 15 ;
16 [label="mse = 0.0\nsamples = 1\nvalue = 0.299"] ;
15 -> 16 ;
17 [label="mse = 0.0\nsamples = 1\nvalue = 0.428"] ;
15 -> 17 ;
18 [label="mse = 0.0\nsamples = 1\nvalue = 0.892"] ;
14 -> 18 ;
19 [label="chla <= 15.754\nmse = 0.026\nsamples = 3\nvalue = 0.295"] ;
13 -> 19 ;
20 [label="chla <= 15.239\nmse = 0.005\nsamples = 2\nvalue = 0.19"] ;
19 -> 20 ;
21 [label="mse = 0.0\nsamples = 1\nvalue = 0.264"] ;
20 -> 21 ;
22 [label="mse = -0.0\nsamples = 1\nvalue = 0.116"] ;
20 -> 22 ;
23 [label="mse = 0.0\nsamples = 1\nvalue = 0.506"] ;
19 -> 23 ;
24 [label="chla <= 33.4\nmse = 1.352\nsamples = 9\nvalue = 1.892"] ;
0 -> 24 [labeldistance=2.5, labelangle=-45, headlabel="False"] ;
25 [label="chla <= 19.583\nmse = 1.202\nsamples = 8\nvalue = 1.704"] ;
24 -> 25 ;
26 [label="chla <= 18.417\nmse = 2.324\nsamples = 2\nvalue = 2.709"] ;
25 -> 26 ;
27 [label="mse = 0.0\nsamples = 1\nvalue = 1.185"] ;
26 -> 27 ;
28 [label="mse = 0.0\nsamples = 1\nvalue = 4.233"] ;
26 -> 28 ;
29 [label="chla <= 21.55\nmse = 0.379\nsamples = 6\nvalue = 1.369"] ;
25 -> 29 ;
30 [label="mse = 0.0\nsamples = 1\nvalue = 0.495"] ;
29 -> 30 ;
31 [label="chla <= 27.617\nmse = 0.271\nsamples = 5\nvalue = 1.544"] ;
29 -> 31 ;
32 [label="chla <= 24.267\nmse = 0.032\nsamples = 4\nvalue = 1.792"] ;
31 -> 32 ;
33 [label="chla <= 23.017\nmse = 0.001\nsamples = 2\nvalue = 1.651"] ;
32 -> 33 ;
34 [label="mse = 0.0\nsamples = 1\nvalue = 1.622"] ;
33 -> 34 ;
35 [label="mse = 0.0\nsamples = 1\nvalue = 1.68"] ;
33 -> 35 ;
36 [label="chla <= 26.167\nmse = 0.024\nsamples = 2\nvalue = 1.933"] ;
32 -> 36 ;
37 [label="mse = 0.0\nsamples = 1\nvalue = 2.087"] ;
36 -> 37 ;
38 [label="mse = -0.0\nsamples = 1\nvalue = 1.779"] ;
36 -> 38 ;
39 [label="mse = 0.0\nsamples = 1\nvalue = 0.553"] ;
31 -> 39 ;
40 [label="mse = 0.0\nsamples = 1\nvalue = 3.399"] ;
24 -> 40 ;
}