digraph Tree {
node [shape=box] ;
0 [label="Rain_lag1 <= 220.245\nmse = 337.394\nsamples = 33\nvalue = 38.911"] ;
1 [label="Rain_lag1 <= 184.951\nmse = 166.005\nsamples = 17\nvalue = 27.403"] ;
0 -> 1 [labeldistance=2.5, labelangle=45, headlabel="True"] ;
2 [label="Rain_lag1 <= 180.846\nmse = 94.98\nsamples = 12\nvalue = 23.374"] ;
1 -> 2 ;
3 [label="Rain_lag1 <= 176.433\nmse = 120.656\nsamples = 8\nvalue = 25.79"] ;
2 -> 3 ;
4 [label="Rain_lag1 <= 166.744\nmse = 42.198\nsamples = 7\nvalue = 22.331"] ;
3 -> 4 ;
5 [label="Rain_lag1 <= 141.793\nmse = 37.251\nsamples = 5\nvalue = 24.797"] ;
4 -> 5 ;
6 [label="Rain_lag1 <= 97.149\nmse = 12.25\nsamples = 2\nvalue = 19.5"] ;
5 -> 6 ;
7 [label="mse = 0.0\nsamples = 1\nvalue = 23.0"] ;
6 -> 7 ;
8 [label="mse = 0.0\nsamples = 1\nvalue = 16.0"] ;
6 -> 8 ;
9 [label="Rain_lag1 <= 161.646\nmse = 22.739\nsamples = 3\nvalue = 28.329"] ;
5 -> 9 ;
10 [label="Rain_lag1 <= 155.43\nmse = 16.619\nsamples = 2\nvalue = 30.743"] ;
9 -> 10 ;
11 [label="mse = 0.0\nsamples = 1\nvalue = 26.667"] ;
10 -> 11 ;
12 [label="mse = 0.0\nsamples = 1\nvalue = 34.82"] ;
10 -> 12 ;
13 [label="mse = -0.0\nsamples = 1\nvalue = 23.5"] ;
9 -> 13 ;
14 [label="Rain_lag1 <= 171.091\nmse = 1.361\nsamples = 2\nvalue = 16.167"] ;
4 -> 14 ;
15 [label="mse = 0.0\nsamples = 1\nvalue = 17.333"] ;
14 -> 15 ;
16 [label="mse = 0.0\nsamples = 1\nvalue = 15.0"] ;
14 -> 16 ;
17 [label="mse = 0.0\nsamples = 1\nvalue = 50.0"] ;
3 -> 17 ;
18 [label="Rain_lag1 <= 183.432\nmse = 8.602\nsamples = 4\nvalue = 18.542"] ;
2 -> 18 ;
19 [label="Rain_lag1 <= 182.439\nmse = 3.907\nsamples = 3\nvalue = 17.167"] ;
18 -> 19 ;
20 [label="Rain_lag1 <= 181.554\nmse = 1.174\nsamples = 2\nvalue = 18.417"] ;
19 -> 20 ;
21 [label="mse = 0.0\nsamples = 1\nvalue = 17.333"] ;
20 -> 21 ;
22 [label="mse = 0.0\nsamples = 1\nvalue = 19.5"] ;
20 -> 22 ;
23 [label="mse = 0.0\nsamples = 1\nvalue = 14.667"] ;
19 -> 23 ;
24 [label="mse = 0.0\nsamples = 1\nvalue = 22.667"] ;
18 -> 24 ;
25 [label="Rain_lag1 <= 188.417\nmse = 203.969\nsamples = 5\nvalue = 37.074"] ;
1 -> 25 ;
26 [label="mse = 0.0\nsamples = 1\nvalue = 63.538"] ;
25 -> 26 ;
27 [label="Rain_lag1 <= 203.351\nmse = 36.102\nsamples = 4\nvalue = 30.458"] ;
25 -> 27 ;
28 [label="Rain_lag1 <= 193.617\nmse = 6.674\nsamples = 2\nvalue = 36.083"] ;
27 -> 28 ;
29 [label="mse = 0.0\nsamples = 1\nvalue = 38.667"] ;
28 -> 29 ;
30 [label="mse = 0.0\nsamples = 1\nvalue = 33.5"] ;
28 -> 30 ;
31 [label="Rain_lag1 <= 213.889\nmse = 2.25\nsamples = 2\nvalue = 24.833"] ;
27 -> 31 ;
32 [label="mse = 0.0\nsamples = 1\nvalue = 23.333"] ;
31 -> 32 ;
33 [label="mse = 0.0\nsamples = 1\nvalue = 26.333"] ;
31 -> 33 ;
34 [label="Rain_lag1 <= 228.684\nmse = 229.313\nsamples = 16\nvalue = 51.137"] ;
0 -> 34 [labeldistance=2.5, labelangle=-45, headlabel="False"] ;
35 [label="mse = 0.0\nsamples = 1\nvalue = 85.0"] ;
34 -> 35 ;
36 [label="Rain_lag1 <= 304.318\nmse = 163.058\nsamples = 15\nvalue = 48.88"] ;
34 -> 36 ;
37 [label="Rain_lag1 <= 281.317\nmse = 118.248\nsamples = 11\nvalue = 44.614"] ;
36 -> 37 ;
38 [label="Rain_lag1 <= 246.073\nmse = 93.643\nsamples = 8\nvalue = 42.43"] ;
37 -> 38 ;
39 [label="Rain_lag1 <= 236.611\nmse = 102.897\nsamples = 4\nvalue = 46.969"] ;
38 -> 39 ;
40 [label="Rain_lag1 <= 235.308\nmse = 6.355\nsamples = 2\nvalue = 37.146"] ;
39 -> 40 ;
41 [label="mse = 0.0\nsamples = 1\nvalue = 39.667"] ;
40 -> 41 ;
42 [label="mse = -0.0\nsamples = 1\nvalue = 34.625"] ;
40 -> 42 ;
43 [label="Rain_lag1 <= 240.255\nmse = 6.46\nsamples = 2\nvalue = 56.792"] ;
39 -> 43 ;
44 [label="mse = 0.0\nsamples = 1\nvalue = 54.25"] ;
43 -> 44 ;
45 [label="mse = -0.0\nsamples = 1\nvalue = 59.333"] ;
43 -> 45 ;
46 [label="Rain_lag1 <= 261.372\nmse = 43.193\nsamples = 4\nvalue = 37.892"] ;
38 -> 46 ;
47 [label="Rain_lag1 <= 250.029\nmse = 6.891\nsamples = 2\nvalue = 32.792"] ;
46 -> 47 ;
48 [label="mse = 0.0\nsamples = 1\nvalue = 35.417"] ;
47 -> 48 ;
49 [label="mse = -0.0\nsamples = 1\nvalue = 30.167"] ;
47 -> 49 ;
50 [label="Rain_lag1 <= 271.79\nmse = 27.475\nsamples = 2\nvalue = 42.992"] ;
46 -> 50 ;
51 [label="mse = 0.0\nsamples = 1\nvalue = 48.233"] ;
50 -> 51 ;
52 [label="mse = 0.0\nsamples = 1\nvalue = 37.75"] ;
50 -> 52 ;
53 [label="Rain_lag1 <= 290.627\nmse = 137.217\nsamples = 3\nvalue = 50.439"] ;
37 -> 53 ;
54 [label="mse = 0.0\nsamples = 1\nvalue = 65.385"] ;
53 -> 54 ;
55 [label="Rain_lag1 <= 295.637\nmse = 38.292\nsamples = 2\nvalue = 42.966"] ;
53 -> 55 ;
56 [label="mse = 0.0\nsamples = 1\nvalue = 49.154"] ;
55 -> 56 ;
57 [label="mse = -0.0\nsamples = 1\nvalue = 36.778"] ;
55 -> 57 ;
58 [label="Rain_lag1 <= 310.909\nmse = 98.667\nsamples = 4\nvalue = 60.609"] ;
36 -> 58 ;
59 [label="mse = 0.0\nsamples = 1\nvalue = 76.643"] ;
58 -> 59 ;
60 [label="Rain_lag1 <= 339.114\nmse = 17.303\nsamples = 3\nvalue = 55.265"] ;
58 -> 60 ;
61 [label="Rain_lag1 <= 317.066\nmse = 15.491\nsamples = 2\nvalue = 53.397"] ;
60 -> 61 ;
62 [label="mse = 0.0\nsamples = 1\nvalue = 57.333"] ;
61 -> 62 ;
63 [label="mse = 0.0\nsamples = 1\nvalue = 49.462"] ;
61 -> 63 ;
64 [label="mse = 0.0\nsamples = 1\nvalue = 59.0"] ;
60 -> 64 ;
}