digraph Tree {
node [shape=box] ;
0 [label="WindDays_under_Q0.4 <= 18.0\nmse = 0.478\nsamples = 23\nvalue = 0.621"] ;
1 [label="WindDays_under_Q0.4 <= 15.5\nmse = 0.01\nsamples = 4\nvalue = 0.135"] ;
0 -> 1 [labeldistance=2.5, labelangle=45, headlabel="True"] ;
2 [label="mse = 0.0\nsamples = 1\nvalue = 0.045"] ;
1 -> 2 ;
3 [label="WindDays_under_Q0.4 <= 16.5\nmse = 0.01\nsamples = 3\nvalue = 0.165"] ;
1 -> 3 ;
4 [label="mse = 0.006\nsamples = 2\nvalue = 0.219"] ;
3 -> 4 ;
5 [label="mse = -0.0\nsamples = 1\nvalue = 0.059"] ;
3 -> 5 ;
6 [label="WindDays_under_Q0.4 <= 22.0\nmse = 0.516\nsamples = 19\nvalue = 0.723"] ;
0 -> 6 [labeldistance=2.5, labelangle=-45, headlabel="False"] ;
7 [label="WindDays_under_Q0.4 <= 19.5\nmse = 1.075\nsamples = 3\nvalue = 1.102"] ;
6 -> 7 ;
8 [label="mse = 0.0\nsamples = 1\nvalue = 0.77"] ;
7 -> 8 ;
9 [label="mse = 1.529\nsamples = 2\nvalue = 1.268"] ;
7 -> 9 ;
10 [label="WindDays_under_Q0.4 <= 25.5\nmse = 0.38\nsamples = 16\nvalue = 0.652"] ;
6 -> 10 ;
11 [label="WindDays_under_Q0.4 <= 24.5\nmse = 0.061\nsamples = 4\nvalue = 0.236"] ;
10 -> 11 ;
12 [label="mse = 0.001\nsamples = 2\nvalue = 0.05"] ;
11 -> 12 ;
13 [label="mse = 0.051\nsamples = 2\nvalue = 0.422"] ;
11 -> 13 ;
14 [label="WindDays_under_Q0.4 <= 26.5\nmse = 0.409\nsamples = 12\nvalue = 0.791"] ;
10 -> 14 ;
15 [label="mse = 0.378\nsamples = 2\nvalue = 1.508"] ;
14 -> 15 ;
16 [label="WindDays_under_Q0.4 <= 34.5\nmse = 0.292\nsamples = 10\nvalue = 0.647"] ;
14 -> 16 ;
17 [label="WindDays_under_Q0.4 <= 31.0\nmse = 0.143\nsamples = 5\nvalue = 0.474"] ;
16 -> 17 ;
18 [label="WindDays_under_Q0.4 <= 28.5\nmse = 0.074\nsamples = 2\nvalue = 0.845"] ;
17 -> 18 ;
19 [label="mse = 0.0\nsamples = 1\nvalue = 0.572"] ;
18 -> 19 ;
20 [label="mse = 0.0\nsamples = 1\nvalue = 1.117"] ;
18 -> 20 ;
21 [label="WindDays_under_Q0.4 <= 33.0\nmse = 0.036\nsamples = 3\nvalue = 0.226"] ;
17 -> 21 ;
22 [label="mse = 0.0\nsamples = 1\nvalue = 0.07"] ;
21 -> 22 ;
23 [label="mse = 0.036\nsamples = 2\nvalue = 0.304"] ;
21 -> 23 ;
24 [label="WindDays_under_Q0.4 <= 44.5\nmse = 0.38\nsamples = 5\nvalue = 0.821"] ;
16 -> 24 ;
25 [label="WindDays_under_Q0.4 <= 41.0\nmse = 0.353\nsamples = 4\nvalue = 0.977"] ;
24 -> 25 ;
26 [label="WindDays_under_Q0.4 <= 38.0\nmse = 0.291\nsamples = 3\nvalue = 0.765"] ;
25 -> 26 ;
27 [label="WindDays_under_Q0.4 <= 36.0\nmse = 0.035\nsamples = 2\nvalue = 1.13"] ;
26 -> 27 ;
28 [label="mse = 0.0\nsamples = 1\nvalue = 1.317"] ;
27 -> 28 ;
29 [label="mse = -0.0\nsamples = 1\nvalue = 0.944"] ;
27 -> 29 ;
30 [label="mse = 0.0\nsamples = 1\nvalue = 0.033"] ;
26 -> 30 ;
31 [label="mse = 0.0\nsamples = 1\nvalue = 1.613"] ;
25 -> 31 ;
32 [label="mse = -0.0\nsamples = 1\nvalue = 0.196"] ;
24 -> 32 ;
}