digraph Tree {
node [shape=box] ;
0 [label="Rain_lag1 <= 65.794\nmse = 311.002\nsamples = 32\nvalue = 43.562"] ;
1 [label="mse = 0.0\nsamples = 1\nvalue = 20.333"] ;
0 -> 1 [labeldistance=2.5, labelangle=45, headlabel="True"] ;
2 [label="Rain_lag1 <= 159.044\nmse = 303.068\nsamples = 31\nvalue = 44.311"] ;
0 -> 2 [labeldistance=2.5, labelangle=-45, headlabel="False"] ;
3 [label="Rain_lag1 <= 127.565\nmse = 347.038\nsamples = 16\nvalue = 47.753"] ;
2 -> 3 ;
4 [label="Rain_lag1 <= 121.723\nmse = 438.151\nsamples = 9\nvalue = 41.318"] ;
3 -> 4 ;
5 [label="Rain_lag1 <= 114.622\nmse = 413.431\nsamples = 6\nvalue = 50.059"] ;
4 -> 5 ;
6 [label="Rain_lag1 <= 99.436\nmse = 427.918\nsamples = 4\nvalue = 42.146"] ;
5 -> 6 ;
7 [label="Rain_lag1 <= 82.56\nmse = 385.673\nsamples = 3\nvalue = 48.944"] ;
6 -> 7 ;
8 [label="Rain_lag1 <= 77.399\nmse = 230.028\nsamples = 2\nvalue = 38.167"] ;
7 -> 8 ;
9 [label="mse = 0.0\nsamples = 1\nvalue = 53.333"] ;
8 -> 9 ;
10 [label="mse = 0.0\nsamples = 1\nvalue = 23.0"] ;
8 -> 10 ;
11 [label="mse = 0.0\nsamples = 1\nvalue = 70.5"] ;
7 -> 11 ;
12 [label="mse = 0.0\nsamples = 1\nvalue = 21.75"] ;
6 -> 12 ;
13 [label="Rain_lag1 <= 118.609\nmse = 8.771\nsamples = 2\nvalue = 65.885"] ;
5 -> 13 ;
14 [label="mse = 0.0\nsamples = 1\nvalue = 62.923"] ;
13 -> 14 ;
15 [label="mse = 0.0\nsamples = 1\nvalue = 68.846"] ;
13 -> 15 ;
16 [label="Rain_lag1 <= 123.521\nmse = 29.204\nsamples = 3\nvalue = 23.837"] ;
4 -> 16 ;
17 [label="Rain_lag1 <= 122.957\nmse = 0.401\nsamples = 2\nvalue = 20.033"] ;
16 -> 17 ;
18 [label="mse = 0.0\nsamples = 1\nvalue = 19.4"] ;
17 -> 18 ;
19 [label="mse = 0.0\nsamples = 1\nvalue = 20.667"] ;
17 -> 19 ;
20 [label="mse = 0.0\nsamples = 1\nvalue = 31.444"] ;
16 -> 20 ;
21 [label="Rain_lag1 <= 149.059\nmse = 108.189\nsamples = 7\nvalue = 56.027"] ;
3 -> 21 ;
22 [label="Rain_lag1 <= 134.623\nmse = 10.13\nsamples = 3\nvalue = 65.833"] ;
21 -> 22 ;
23 [label="mse = 0.0\nsamples = 1\nvalue = 70.333"] ;
22 -> 23 ;
24 [label="Rain_lag1 <= 143.505\nmse = 0.007\nsamples = 2\nvalue = 63.583"] ;
22 -> 24 ;
25 [label="mse = 0.0\nsamples = 1\nvalue = 63.5"] ;
24 -> 25 ;
26 [label="mse = 0.0\nsamples = 1\nvalue = 63.667"] ;
24 -> 26 ;
27 [label="Rain_lag1 <= 151.899\nmse = 55.53\nsamples = 4\nvalue = 48.673"] ;
21 -> 27 ;
28 [label="mse = 0.0\nsamples = 1\nvalue = 38.667"] ;
27 -> 28 ;
29 [label="Rain_lag1 <= 158.579\nmse = 29.539\nsamples = 3\nvalue = 52.009"] ;
27 -> 29 ;
30 [label="Rain_lag1 <= 156.567\nmse = 32.257\nsamples = 2\nvalue = 54.013"] ;
29 -> 30 ;
31 [label="mse = 0.0\nsamples = 1\nvalue = 48.333"] ;
30 -> 31 ;
32 [label="mse = 0.0\nsamples = 1\nvalue = 59.692"] ;
30 -> 32 ;
33 [label="mse = 0.0\nsamples = 1\nvalue = 48.0"] ;
29 -> 33 ;
34 [label="Rain_lag1 <= 182.35\nmse = 230.041\nsamples = 15\nvalue = 40.639"] ;
2 -> 34 ;
35 [label="Rain_lag1 <= 175.606\nmse = 11.23\nsamples = 4\nvalue = 29.625"] ;
34 -> 35 ;
36 [label="Rain_lag1 <= 162.908\nmse = 6.467\nsamples = 3\nvalue = 31.083"] ;
35 -> 36 ;
37 [label="mse = 0.0\nsamples = 1\nvalue = 27.889"] ;
36 -> 37 ;
38 [label="Rain_lag1 <= 170.946\nmse = 2.046\nsamples = 2\nvalue = 32.681"] ;
36 -> 38 ;
39 [label="mse = 0.0\nsamples = 1\nvalue = 31.25"] ;
38 -> 39 ;
40 [label="mse = 0.0\nsamples = 1\nvalue = 34.111"] ;
38 -> 40 ;
41 [label="mse = 0.0\nsamples = 1\nvalue = 25.25"] ;
35 -> 41 ;
42 [label="Rain_lag1 <= 206.27\nmse = 249.458\nsamples = 11\nvalue = 44.644"] ;
34 -> 42 ;
43 [label="Rain_lag1 <= 193.694\nmse = 103.91\nsamples = 3\nvalue = 59.404"] ;
42 -> 43 ;
44 [label="mse = 0.0\nsamples = 1\nvalue = 49.154"] ;
43 -> 44 ;
45 [label="Rain_lag1 <= 199.576\nmse = 77.068\nsamples = 2\nvalue = 64.529"] ;
43 -> 45 ;
46 [label="mse = 0.0\nsamples = 1\nvalue = 73.308"] ;
45 -> 46 ;
47 [label="mse = 0.0\nsamples = 1\nvalue = 55.75"] ;
45 -> 47 ;
48 [label="Rain_lag1 <= 224.3\nmse = 191.705\nsamples = 8\nvalue = 39.109"] ;
42 -> 48 ;
49 [label="Rain_lag1 <= 217.968\nmse = 10.835\nsamples = 2\nvalue = 25.042"] ;
48 -> 49 ;
50 [label="mse = 0.0\nsamples = 1\nvalue = 28.333"] ;
49 -> 50 ;
51 [label="mse = -0.0\nsamples = 1\nvalue = 21.75"] ;
49 -> 51 ;
52 [label="Rain_lag1 <= 249.595\nmse = 164.047\nsamples = 6\nvalue = 43.798"] ;
48 -> 52 ;
53 [label="Rain_lag1 <= 233.661\nmse = 8.507\nsamples = 2\nvalue = 55.417"] ;
52 -> 53 ;
54 [label="mse = 0.0\nsamples = 1\nvalue = 58.333"] ;
53 -> 54 ;
55 [label="mse = 0.0\nsamples = 1\nvalue = 52.5"] ;
53 -> 55 ;
56 [label="Rain_lag1 <= 259.814\nmse = 140.568\nsamples = 4\nvalue = 37.988"] ;
52 -> 56 ;
57 [label="Rain_lag1 <= 256.485\nmse = 2.292\nsamples = 2\nvalue = 26.264"] ;
56 -> 57 ;
58 [label="mse = 0.0\nsamples = 1\nvalue = 24.75"] ;
57 -> 58 ;
59 [label="mse = -0.0\nsamples = 1\nvalue = 27.778"] ;
57 -> 59 ;
60 [label="Rain_lag1 <= 267.131\nmse = 3.918\nsamples = 2\nvalue = 49.713"] ;
56 -> 60 ;
61 [label="mse = 0.0\nsamples = 1\nvalue = 51.692"] ;
60 -> 61 ;
62 [label="mse = 0.0\nsamples = 1\nvalue = 47.733"] ;
60 -> 62 ;
}