digraph Tree {
node [shape=box] ;
0 [label="colour <= 43.2\nmse = 0.513\nsamples = 20\nvalue = 0.663"] ;
1 [label="colour <= 29.667\nmse = 0.245\nsamples = 3\nvalue = 1.982"] ;
0 -> 1 [labeldistance=2.5, labelangle=45, headlabel="True"] ;
2 [label="colour <= 20.5\nmse = 0.163\nsamples = 2\nvalue = 1.72"] ;
1 -> 2 ;
3 [label="mse = 0.0\nsamples = 1\nvalue = 2.123"] ;
2 -> 3 ;
4 [label="mse = 0.0\nsamples = 1\nvalue = 1.317"] ;
2 -> 4 ;
5 [label="mse = 0.0\nsamples = 1\nvalue = 2.505"] ;
1 -> 5 ;
6 [label="colour <= 69.59\nmse = 0.199\nsamples = 17\nvalue = 0.43"] ;
0 -> 6 [labeldistance=2.5, labelangle=-45, headlabel="False"] ;
7 [label="colour <= 61.308\nmse = 0.132\nsamples = 14\nvalue = 0.376"] ;
6 -> 7 ;
8 [label="colour <= 52.917\nmse = 0.141\nsamples = 10\nvalue = 0.465"] ;
7 -> 8 ;
9 [label="colour <= 52.096\nmse = 0.086\nsamples = 6\nvalue = 0.303"] ;
8 -> 9 ;
10 [label="colour <= 50.423\nmse = 0.086\nsamples = 5\nvalue = 0.358"] ;
9 -> 10 ;
11 [label="colour <= 48.167\nmse = 0.054\nsamples = 4\nvalue = 0.255"] ;
10 -> 11 ;
12 [label="colour <= 47.867\nmse = 0.071\nsamples = 2\nvalue = 0.382"] ;
11 -> 12 ;
13 [label="mse = 0.0\nsamples = 1\nvalue = 0.116"] ;
12 -> 13 ;
14 [label="mse = 0.0\nsamples = 1\nvalue = 0.648"] ;
12 -> 14 ;
15 [label="colour <= 48.744\nmse = 0.005\nsamples = 2\nvalue = 0.128"] ;
11 -> 15 ;
16 [label="mse = 0.0\nsamples = 1\nvalue = 0.059"] ;
15 -> 16 ;
17 [label="mse = 0.0\nsamples = 1\nvalue = 0.197"] ;
15 -> 17 ;
18 [label="mse = 0.0\nsamples = 1\nvalue = 0.77"] ;
10 -> 18 ;
19 [label="mse = -0.0\nsamples = 1\nvalue = 0.031"] ;
9 -> 19 ;
20 [label="colour <= 57.042\nmse = 0.126\nsamples = 4\nvalue = 0.707"] ;
8 -> 20 ;
21 [label="colour <= 54.542\nmse = 0.007\nsamples = 2\nvalue = 1.031"] ;
20 -> 21 ;
22 [label="mse = 0.0\nsamples = 1\nvalue = 1.117"] ;
21 -> 22 ;
23 [label="mse = 0.0\nsamples = 1\nvalue = 0.944"] ;
21 -> 23 ;
24 [label="colour <= 59.013\nmse = 0.035\nsamples = 2\nvalue = 0.384"] ;
20 -> 24 ;
25 [label="mse = 0.0\nsamples = 1\nvalue = 0.196"] ;
24 -> 25 ;
26 [label="mse = 0.0\nsamples = 1\nvalue = 0.572"] ;
24 -> 26 ;
27 [label="colour <= 63.583\nmse = 0.039\nsamples = 4\nvalue = 0.153"] ;
7 -> 27 ;
28 [label="colour <= 63.212\nmse = 0.001\nsamples = 2\nvalue = 0.043"] ;
27 -> 28 ;
29 [label="mse = 0.0\nsamples = 1\nvalue = 0.015"] ;
28 -> 29 ;
30 [label="mse = 0.0\nsamples = 1\nvalue = 0.07"] ;
28 -> 30 ;
31 [label="colour <= 66.256\nmse = 0.053\nsamples = 2\nvalue = 0.263"] ;
27 -> 31 ;
32 [label="mse = 0.0\nsamples = 1\nvalue = 0.493"] ;
31 -> 32 ;
33 [label="mse = 0.0\nsamples = 1\nvalue = 0.033"] ;
31 -> 33 ;
34 [label="colour <= 70.417\nmse = 0.436\nsamples = 3\nvalue = 0.683"] ;
6 -> 34 ;
35 [label="mse = 0.0\nsamples = 1\nvalue = 1.613"] ;
34 -> 35 ;
36 [label="colour <= 71.904\nmse = 0.006\nsamples = 2\nvalue = 0.219"] ;
34 -> 36 ;
37 [label="mse = 0.0\nsamples = 1\nvalue = 0.139"] ;
36 -> 37 ;
38 [label="mse = -0.0\nsamples = 1\nvalue = 0.298"] ;
36 -> 38 ;
}