digraph Tree {
node [shape=box] ;
0 [label="colour_prevSummer <= 36.517\nmse = 326.553\nsamples = 30\nvalue = 43.606"] ;
1 [label="colour_prevSummer <= 26.896\nmse = 15.752\nsamples = 13\nvalue = 24.892"] ;
0 -> 1 [labeldistance=2.5, labelangle=45, headlabel="True"] ;
2 [label="colour_prevSummer <= 25.25\nmse = 12.715\nsamples = 8\nvalue = 22.925"] ;
1 -> 2 ;
3 [label="colour_prevSummer <= 24.188\nmse = 12.724\nsamples = 6\nvalue = 23.944"] ;
2 -> 3 ;
4 [label="colour_prevSummer <= 20.083\nmse = 2.459\nsamples = 5\nvalue = 22.483"] ;
3 -> 4 ;
5 [label="colour_prevSummer <= 18.604\nmse = 0.293\nsamples = 2\nvalue = 21.208"] ;
4 -> 5 ;
6 [label="mse = 0.0\nsamples = 1\nvalue = 20.667"] ;
5 -> 6 ;
7 [label="mse = -0.0\nsamples = 1\nvalue = 21.75"] ;
5 -> 7 ;
8 [label="colour_prevSummer <= 22.167\nmse = 2.097\nsamples = 3\nvalue = 23.333"] ;
4 -> 8 ;
9 [label="mse = 1.266\nsamples = 2\nvalue = 24.125"] ;
8 -> 9 ;
10 [label="mse = 0.0\nsamples = 1\nvalue = 21.75"] ;
8 -> 10 ;
11 [label="mse = 0.0\nsamples = 1\nvalue = 31.25"] ;
3 -> 11 ;
12 [label="colour_prevSummer <= 26.25\nmse = 0.218\nsamples = 2\nvalue = 19.867"] ;
2 -> 12 ;
13 [label="mse = 0.0\nsamples = 1\nvalue = 20.333"] ;
12 -> 13 ;
14 [label="mse = 0.0\nsamples = 1\nvalue = 19.4"] ;
12 -> 14 ;
15 [label="colour_prevSummer <= 33.323\nmse = 4.518\nsamples = 5\nvalue = 28.039"] ;
1 -> 15 ;
16 [label="colour_prevSummer <= 30.653\nmse = 2.024\nsamples = 4\nvalue = 27.187"] ;
15 -> 16 ;
17 [label="colour_prevSummer <= 27.299\nmse = 0.058\nsamples = 3\nvalue = 28.0"] ;
16 -> 17 ;
18 [label="mse = 0.0\nsamples = 1\nvalue = 28.333"] ;
17 -> 18 ;
19 [label="colour_prevSummer <= 28.25\nmse = 0.003\nsamples = 2\nvalue = 27.833"] ;
17 -> 19 ;
20 [label="mse = 0.0\nsamples = 1\nvalue = 27.889"] ;
19 -> 20 ;
21 [label="mse = -0.0\nsamples = 1\nvalue = 27.778"] ;
19 -> 21 ;
22 [label="mse = 0.0\nsamples = 1\nvalue = 24.75"] ;
16 -> 22 ;
23 [label="mse = -0.0\nsamples = 1\nvalue = 31.444"] ;
15 -> 23 ;
24 [label="colour_prevSummer <= 60.392\nmse = 91.632\nsamples = 17\nvalue = 57.916"] ;
0 -> 24 [labeldistance=2.5, labelangle=-45, headlabel="False"] ;
25 [label="colour_prevSummer <= 42.58\nmse = 99.78\nsamples = 11\nvalue = 54.601"] ;
24 -> 25 ;
26 [label="colour_prevSummer <= 41.781\nmse = 116.41\nsamples = 3\nvalue = 58.325"] ;
25 -> 26 ;
27 [label="colour_prevSummer <= 39.972\nmse = 6.25\nsamples = 2\nvalue = 50.833"] ;
26 -> 27 ;
28 [label="mse = 0.0\nsamples = 1\nvalue = 53.333"] ;
27 -> 28 ;
29 [label="mse = 0.0\nsamples = 1\nvalue = 48.333"] ;
27 -> 29 ;
30 [label="mse = 0.0\nsamples = 1\nvalue = 73.308"] ;
26 -> 30 ;
31 [label="colour_prevSummer <= 43.75\nmse = 86.393\nsamples = 8\nvalue = 53.205"] ;
25 -> 31 ;
32 [label="mse = 0.0\nsamples = 1\nvalue = 38.667"] ;
31 -> 32 ;
33 [label="colour_prevSummer <= 45.562\nmse = 64.229\nsamples = 7\nvalue = 55.282"] ;
31 -> 33 ;
34 [label="mse = 0.0\nsamples = 1\nvalue = 70.333"] ;
33 -> 34 ;
35 [label="colour_prevSummer <= 59.162\nmse = 30.881\nsamples = 6\nvalue = 52.773"] ;
33 -> 35 ;
36 [label="colour_prevSummer <= 56.768\nmse = 30.961\nsamples = 5\nvalue = 53.781"] ;
35 -> 36 ;
37 [label="colour_prevSummer <= 48.462\nmse = 9.182\nsamples = 4\nvalue = 51.351"] ;
36 -> 37 ;
38 [label="mse = 0.0\nsamples = 1\nvalue = 55.75"] ;
37 -> 38 ;
39 [label="colour_prevSummer <= 53.705\nmse = 3.642\nsamples = 3\nvalue = 49.885"] ;
37 -> 39 ;
40 [label="colour_prevSummer <= 51.628\nmse = 2.799\nsamples = 2\nvalue = 50.827"] ;
39 -> 40 ;
41 [label="mse = 0.0\nsamples = 1\nvalue = 49.154"] ;
40 -> 41 ;
42 [label="mse = 0.0\nsamples = 1\nvalue = 52.5"] ;
40 -> 42 ;
43 [label="mse = 0.0\nsamples = 1\nvalue = 48.0"] ;
39 -> 43 ;
44 [label="mse = 0.0\nsamples = 1\nvalue = 63.5"] ;
36 -> 44 ;
45 [label="mse = 0.0\nsamples = 1\nvalue = 47.733"] ;
35 -> 45 ;
46 [label="colour_prevSummer <= 64.41\nmse = 19.612\nsamples = 6\nvalue = 63.994"] ;
24 -> 46 ;
47 [label="colour_prevSummer <= 62.785\nmse = 0.684\nsamples = 2\nvalue = 69.673"] ;
46 -> 47 ;
48 [label="mse = 0.0\nsamples = 1\nvalue = 68.846"] ;
47 -> 48 ;
49 [label="mse = 0.0\nsamples = 1\nvalue = 70.5"] ;
47 -> 49 ;
50 [label="colour_prevSummer <= 70.045\nmse = 4.884\nsamples = 4\nvalue = 61.154"] ;
46 -> 50 ;
51 [label="colour_prevSummer <= 66.545\nmse = 0.462\nsamples = 2\nvalue = 59.013"] ;
50 -> 51 ;
52 [label="mse = 0.0\nsamples = 1\nvalue = 58.333"] ;
51 -> 52 ;
53 [label="mse = 0.0\nsamples = 1\nvalue = 59.692"] ;
51 -> 53 ;
54 [label="colour_prevSummer <= 72.206\nmse = 0.138\nsamples = 2\nvalue = 63.295"] ;
50 -> 54 ;
55 [label="mse = 0.0\nsamples = 1\nvalue = 63.667"] ;
54 -> 55 ;
56 [label="mse = -0.0\nsamples = 1\nvalue = 62.923"] ;
54 -> 56 ;
}