digraph Tree {
node [shape=box] ;
0 [label="WindDays_under_Q0.4 <= 18.0\nmse = 0.478\nsamples = 23\nvalue = 0.621"] ;
1 [label="mse = 0.01\nsamples = 4\nvalue = 0.135"] ;
0 -> 1 [labeldistance=2.5, labelangle=45, headlabel="True"] ;
2 [label="WindDays_under_Q0.4 <= 22.0\nmse = 0.516\nsamples = 19\nvalue = 0.723"] ;
0 -> 2 [labeldistance=2.5, labelangle=-45, headlabel="False"] ;
3 [label="mse = 1.075\nsamples = 3\nvalue = 1.102"] ;
2 -> 3 ;
4 [label="WindDays_under_Q0.4 <= 25.5\nmse = 0.38\nsamples = 16\nvalue = 0.652"] ;
2 -> 4 ;
5 [label="mse = 0.061\nsamples = 4\nvalue = 0.236"] ;
4 -> 5 ;
6 [label="WindDays_under_Q0.4 <= 31.0\nmse = 0.409\nsamples = 12\nvalue = 0.791"] ;
4 -> 6 ;
7 [label="mse = 0.336\nsamples = 4\nvalue = 1.176"] ;
6 -> 7 ;
8 [label="mse = 0.334\nsamples = 8\nvalue = 0.598"] ;
6 -> 8 ;
}