digraph Tree {
node [shape=box] ;
0 [label="WindDays_over_Q0.6 <= 40.5\nmse = 38.06\nsamples = 37\nvalue = 14.721"] ;
1 [label="WindDays_over_Q0.6 <= 38.5\nmse = 37.314\nsamples = 18\nvalue = 16.607"] ;
0 -> 1 [labeldistance=2.5, labelangle=45, headlabel="True"] ;
3 [label="WindDays_over_Q0.6 <= 34.5\nmse = 16.388\nsamples = 14\nvalue = 15.097"] ;
1 -> 3 ;
5 [label="WindDays_over_Q0.6 <= 31.5\nmse = 9.541\nsamples = 10\nvalue = 16.664"] ;
3 -> 5 ;
7 [label="mse = 3.41\nsamples = 7\nvalue = 15.024"] ;
5 -> 7 ;
8 [label="mse = 2.943\nsamples = 3\nvalue = 20.489"] ;
5 -> 8 ;
6 [label="mse = 12.034\nsamples = 4\nvalue = 11.181"] ;
3 -> 6 ;
4 [label="mse = 74.641\nsamples = 4\nvalue = 21.892"] ;
1 -> 4 ;
2 [label="WindDays_over_Q0.6 <= 44.5\nmse = 32.201\nsamples = 19\nvalue = 12.934"] ;
0 -> 2 [labeldistance=2.5, labelangle=-45, headlabel="False"] ;
9 [label="WindDays_over_Q0.6 <= 42.5\nmse = 31.353\nsamples = 6\nvalue = 11.169"] ;
2 -> 9 ;
11 [label="mse = 41.707\nsamples = 3\nvalue = 14.378"] ;
9 -> 11 ;
12 [label="mse = 0.412\nsamples = 3\nvalue = 7.961"] ;
9 -> 12 ;
10 [label="WindDays_over_Q0.6 <= 50.5\nmse = 30.493\nsamples = 13\nvalue = 13.748"] ;
2 -> 10 ;
13 [label="mse = 39.416\nsamples = 5\nvalue = 16.207"] ;
10 -> 13 ;
14 [label="mse = 18.775\nsamples = 8\nvalue = 12.211"] ;
10 -> 14 ;
}