digraph Tree {
node [shape=box] ;
0 [label="WindDays_over_Q0.6 <= 40.5\nmse = 38.06\nsamples = 37\nvalue = 14.721"] ;
1 [label="WindDays_over_Q0.6 <= 39.5\nmse = 37.314\nsamples = 18\nvalue = 16.607"] ;
0 -> 1 [labeldistance=2.5, labelangle=45, headlabel="True"] ;
2 [label="WindDays_over_Q0.6 <= 34.5\nmse = 15.273\nsamples = 17\nvalue = 15.447"] ;
1 -> 2 ;
3 [label="WindDays_over_Q0.6 <= 31.5\nmse = 9.541\nsamples = 10\nvalue = 16.664"] ;
2 -> 3 ;
4 [label="WindDays_over_Q0.6 <= 25.0\nmse = 3.41\nsamples = 7\nvalue = 15.024"] ;
3 -> 4 ;
5 [label="mse = 0.0\nsamples = 1\nvalue = 16.446"] ;
4 -> 5 ;
6 [label="WindDays_over_Q0.6 <= 30.5\nmse = 3.585\nsamples = 6\nvalue = 14.787"] ;
4 -> 6 ;
7 [label="WindDays_over_Q0.6 <= 28.0\nmse = 3.649\nsamples = 5\nvalue = 14.457"] ;
6 -> 7 ;
8 [label="mse = 7.754\nsamples = 2\nvalue = 14.954"] ;
7 -> 8 ;
9 [label="WindDays_over_Q0.6 <= 29.5\nmse = 0.639\nsamples = 3\nvalue = 14.126"] ;
7 -> 9 ;
10 [label="mse = 0.822\nsamples = 2\nvalue = 14.34"] ;
9 -> 10 ;
11 [label="mse = 0.0\nsamples = 1\nvalue = 13.7"] ;
9 -> 11 ;
12 [label="mse = -0.0\nsamples = 1\nvalue = 16.436"] ;
6 -> 12 ;
13 [label="WindDays_over_Q0.6 <= 33.0\nmse = 2.943\nsamples = 3\nvalue = 20.489"] ;
3 -> 13 ;
14 [label="mse = 2.051\nsamples = 2\nvalue = 19.601"] ;
13 -> 14 ;
15 [label="mse = 0.0\nsamples = 1\nvalue = 22.264"] ;
13 -> 15 ;
16 [label="WindDays_over_Q0.6 <= 36.0\nmse = 18.324\nsamples = 7\nvalue = 13.708"] ;
2 -> 16 ;
17 [label="mse = 0.0\nsamples = 1\nvalue = 6.267"] ;
16 -> 17 ;
18 [label="WindDays_over_Q0.6 <= 38.5\nmse = 10.61\nsamples = 6\nvalue = 14.949"] ;
16 -> 18 ;
19 [label="WindDays_over_Q0.6 <= 37.5\nmse = 5.312\nsamples = 3\nvalue = 12.819"] ;
18 -> 19 ;
20 [label="mse = 1.915\nsamples = 2\nvalue = 14.239"] ;
19 -> 20 ;
21 [label="mse = -0.0\nsamples = 1\nvalue = 9.978"] ;
19 -> 21 ;
22 [label="mse = 6.835\nsamples = 3\nvalue = 17.079"] ;
18 -> 22 ;
23 [label="mse = 0.0\nsamples = 1\nvalue = 36.333"] ;
1 -> 23 ;
24 [label="WindDays_over_Q0.6 <= 41.5\nmse = 32.201\nsamples = 19\nvalue = 12.934"] ;
0 -> 24 [labeldistance=2.5, labelangle=-45, headlabel="False"] ;
25 [label="mse = 0.0\nsamples = 1\nvalue = 5.467"] ;
24 -> 25 ;
26 [label="WindDays_over_Q0.6 <= 42.5\nmse = 30.72\nsamples = 18\nvalue = 13.348"] ;
24 -> 26 ;
27 [label="mse = 3.004\nsamples = 2\nvalue = 18.833"] ;
26 -> 27 ;
28 [label="WindDays_over_Q0.6 <= 44.5\nmse = 29.954\nsamples = 16\nvalue = 12.663"] ;
26 -> 28 ;
29 [label="WindDays_over_Q0.6 <= 43.5\nmse = 0.412\nsamples = 3\nvalue = 7.961"] ;
28 -> 29 ;
30 [label="mse = 0.0\nsamples = 1\nvalue = 7.075"] ;
29 -> 30 ;
31 [label="mse = 0.029\nsamples = 2\nvalue = 8.404"] ;
29 -> 31 ;
32 [label="WindDays_over_Q0.6 <= 50.5\nmse = 30.493\nsamples = 13\nvalue = 13.748"] ;
28 -> 32 ;
33 [label="WindDays_over_Q0.6 <= 46.0\nmse = 39.416\nsamples = 5\nvalue = 16.207"] ;
32 -> 33 ;
34 [label="mse = 40.515\nsamples = 3\nvalue = 14.0"] ;
33 -> 34 ;
35 [label="WindDays_over_Q0.6 <= 48.5\nmse = 19.507\nsamples = 2\nvalue = 19.517"] ;
33 -> 35 ;
36 [label="mse = 0.0\nsamples = 1\nvalue = 23.933"] ;
35 -> 36 ;
37 [label="mse = -0.0\nsamples = 1\nvalue = 15.1"] ;
35 -> 37 ;
38 [label="WindDays_over_Q0.6 <= 52.5\nmse = 18.775\nsamples = 8\nvalue = 12.211"] ;
32 -> 38 ;
39 [label="WindDays_over_Q0.6 <= 51.5\nmse = 34.813\nsamples = 4\nvalue = 11.707"] ;
38 -> 39 ;
40 [label="mse = 43.281\nsamples = 3\nvalue = 12.592"] ;
39 -> 40 ;
41 [label="mse = 0.0\nsamples = 1\nvalue = 9.05"] ;
39 -> 41 ;
42 [label="WindDays_over_Q0.6 <= 61.0\nmse = 2.228\nsamples = 4\nvalue = 12.715"] ;
38 -> 42 ;
43 [label="WindDays_over_Q0.6 <= 54.5\nmse = 1.524\nsamples = 3\nvalue = 13.317"] ;
42 -> 43 ;
44 [label="mse = 1.051\nsamples = 2\nvalue = 12.675"] ;
43 -> 44 ;
45 [label="mse = -0.0\nsamples = 1\nvalue = 14.6"] ;
43 -> 45 ;
46 [label="mse = -0.0\nsamples = 1\nvalue = 10.911"] ;
42 -> 46 ;
}