digraph Tree {
node [shape=box] ;
0 [label="chla <= 17.419\nmse = 0.506\nsamples = 21\nvalue = 0.641"] ;
1 [label="chla <= 16.03\nmse = 0.017\nsamples = 11\nvalue = 0.13"] ;
0 -> 1 [labeldistance=2.5, labelangle=45, headlabel="True"] ;
7 [label="chla <= 14.15\nmse = 0.002\nsamples = 8\nvalue = 0.068"] ;
1 -> 7 ;
9 [label="mse = 0.001\nsamples = 4\nvalue = 0.075"] ;
7 -> 9 ;
10 [label="mse = 0.002\nsamples = 4\nvalue = 0.061"] ;
7 -> 10 ;
8 [label="mse = 0.02\nsamples = 3\nvalue = 0.295"] ;
1 -> 8 ;
2 [label="chla <= 22.632\nmse = 0.442\nsamples = 10\nvalue = 1.203"] ;
0 -> 2 [labeldistance=2.5, labelangle=-45, headlabel="False"] ;
3 [label="chla <= 18.925\nmse = 0.159\nsamples = 7\nvalue = 0.976"] ;
2 -> 3 ;
5 [label="mse = 0.09\nsamples = 3\nvalue = 1.208"] ;
3 -> 5 ;
6 [label="mse = 0.141\nsamples = 4\nvalue = 0.802"] ;
3 -> 6 ;
4 [label="mse = 0.699\nsamples = 3\nvalue = 1.733"] ;
2 -> 4 ;
}