digraph Tree {
node [shape=box] ;
0 [label="chla_lag1 <= 16.773\nmse = 48.583\nsamples = 35\nvalue = 16.789"] ;
1 [label="TP <= 26.242\nmse = 22.952\nsamples = 23\nvalue = 13.562"] ;
0 -> 1 [labeldistance=2.5, labelangle=45, headlabel="True"] ;
5 [label="chla_lag1 <= 7.25\nmse = 5.508\nsamples = 9\nvalue = 10.181"] ;
1 -> 5 ;
13 [label="mse = 4.617\nsamples = 3\nvalue = 7.717"] ;
5 -> 13 ;
14 [label="mse = 1.403\nsamples = 6\nvalue = 11.412"] ;
5 -> 14 ;
6 [label="Rainy_days_winter <= 139.5\nmse = 22.089\nsamples = 14\nvalue = 15.736"] ;
1 -> 6 ;
7 [label="WindDays_over_Q0.6 <= 35.5\nmse = 14.368\nsamples = 9\nvalue = 14.075"] ;
6 -> 7 ;
11 [label="mse = 10.684\nsamples = 6\nvalue = 12.734"] ;
7 -> 11 ;
12 [label="mse = 10.959\nsamples = 3\nvalue = 16.756"] ;
7 -> 12 ;
8 [label="mse = 22.075\nsamples = 5\nvalue = 18.727"] ;
6 -> 8 ;
2 [label="Rainy_days_winter <= 158.0\nmse = 39.492\nsamples = 12\nvalue = 22.974"] ;
0 -> 2 [labeldistance=2.5, labelangle=-45, headlabel="False"] ;
3 [label="chla_lag1 <= 18.925\nmse = 15.791\nsamples = 8\nvalue = 20.074"] ;
2 -> 3 ;
9 [label="mse = 10.387\nsamples = 4\nvalue = 22.858"] ;
3 -> 9 ;
10 [label="mse = 5.69\nsamples = 4\nvalue = 17.29"] ;
3 -> 10 ;
4 [label="mse = 36.422\nsamples = 4\nvalue = 28.775"] ;
2 -> 4 ;
}