digraph Tree {
node [shape=box] ;
0 [label="colour_lag1 <= 48.167\nmse = 343.106\nsamples = 32\nvalue = 39.293"] ;
1 [label="colour_lag1 <= 26.514\nmse = 67.835\nsamples = 17\nvalue = 25.381"] ;
0 -> 1 [labeldistance=2.5, labelangle=45, headlabel="True"] ;
2 [label="Rain_lag1 <= 183.432\nmse = 14.444\nsamples = 8\nvalue = 18.604"] ;
1 -> 2 ;
3 [label="colour_lag1 <= 20.5\nmse = 2.689\nsamples = 6\nvalue = 16.639"] ;
2 -> 3 ;
4 [label="colour_lag1 <= 19.867\nmse = 0.028\nsamples = 2\nvalue = 14.833"] ;
3 -> 4 ;
5 [label="mse = 0.0\nsamples = 1\nvalue = 14.667"] ;
4 -> 5 ;
6 [label="mse = 0.0\nsamples = 1\nvalue = 15.0"] ;
4 -> 6 ;
7 [label="Rain_lag1 <= 181.554\nmse = 1.575\nsamples = 4\nvalue = 17.542"] ;
3 -> 7 ;
8 [label="colour_lag1 <= 23.5\nmse = 0.395\nsamples = 3\nvalue = 16.889"] ;
7 -> 8 ;
9 [label="mse = 0.0\nsamples = 2\nvalue = 17.333"] ;
8 -> 9 ;
10 [label="mse = 0.0\nsamples = 1\nvalue = 16.0"] ;
8 -> 10 ;
11 [label="mse = -0.0\nsamples = 1\nvalue = 19.5"] ;
7 -> 11 ;
12 [label="colour_lag1 <= 23.875\nmse = 3.361\nsamples = 2\nvalue = 24.5"] ;
2 -> 12 ;
13 [label="mse = 0.0\nsamples = 1\nvalue = 26.333"] ;
12 -> 13 ;
14 [label="mse = 0.0\nsamples = 1\nvalue = 22.667"] ;
12 -> 14 ;
15 [label="colour_lag1 <= 32.778\nmse = 38.19\nsamples = 9\nvalue = 31.404"] ;
1 -> 15 ;
16 [label="colour_lag1 <= 28.111\nmse = 29.339\nsamples = 5\nvalue = 27.356"] ;
15 -> 16 ;
17 [label="Rain_lag1 <= 275.909\nmse = 10.927\nsamples = 2\nvalue = 33.472"] ;
16 -> 17 ;
18 [label="mse = 0.0\nsamples = 1\nvalue = 30.167"] ;
17 -> 18 ;
19 [label="mse = -0.0\nsamples = 1\nvalue = 36.778"] ;
17 -> 19 ;
20 [label="Rain_lag1 <= 112.578\nmse = 0.043\nsamples = 3\nvalue = 23.278"] ;
16 -> 20 ;
21 [label="mse = 0.0\nsamples = 1\nvalue = 23.0"] ;
20 -> 21 ;
22 [label="colour_lag1 <= 29.889\nmse = 0.007\nsamples = 2\nvalue = 23.417"] ;
20 -> 22 ;
23 [label="mse = 0.0\nsamples = 1\nvalue = 23.333"] ;
22 -> 23 ;
24 [label="mse = 0.0\nsamples = 1\nvalue = 23.5"] ;
22 -> 24 ;
25 [label="colour_lag1 <= 36.389\nmse = 3.148\nsamples = 4\nvalue = 36.465"] ;
15 -> 25 ;
26 [label="mse = 0.0\nsamples = 1\nvalue = 34.625"] ;
25 -> 26 ;
27 [label="Rain_lag1 <= 175.46\nmse = 2.691\nsamples = 3\nvalue = 37.079"] ;
25 -> 27 ;
28 [label="mse = 0.0\nsamples = 1\nvalue = 34.82"] ;
27 -> 28 ;
29 [label="Rain_lag1 <= 231.799\nmse = 0.21\nsamples = 2\nvalue = 38.208"] ;
27 -> 29 ;
30 [label="mse = 0.0\nsamples = 1\nvalue = 38.667"] ;
29 -> 30 ;
31 [label="mse = 0.0\nsamples = 1\nvalue = 37.75"] ;
29 -> 31 ;
32 [label="colour_lag1 <= 57.042\nmse = 187.093\nsamples = 15\nvalue = 55.061"] ;
0 -> 32 [labeldistance=2.5, labelangle=-45, headlabel="False"] ;
33 [label="Rain_lag1 <= 269.757\nmse = 73.808\nsamples = 6\nvalue = 44.178"] ;
32 -> 33 ;
34 [label="Rain_lag1 <= 188.452\nmse = 40.717\nsamples = 4\nvalue = 39.646"] ;
33 -> 34 ;
35 [label="mse = 0.0\nsamples = 1\nvalue = 50.0"] ;
34 -> 35 ;
36 [label="Rain_lag1 <= 215.145\nmse = 6.64\nsamples = 3\nvalue = 36.194"] ;
34 -> 36 ;
37 [label="mse = 0.0\nsamples = 1\nvalue = 33.5"] ;
36 -> 37 ;
38 [label="Rain_lag1 <= 241.242\nmse = 4.516\nsamples = 2\nvalue = 37.542"] ;
36 -> 38 ;
39 [label="mse = 0.0\nsamples = 1\nvalue = 39.667"] ;
38 -> 39 ;
40 [label="mse = 0.0\nsamples = 1\nvalue = 35.417"] ;
38 -> 40 ;
41 [label="colour_lag1 <= 50.013\nmse = 16.726\nsamples = 2\nvalue = 53.244"] ;
33 -> 41 ;
42 [label="mse = 0.0\nsamples = 1\nvalue = 57.333"] ;
41 -> 42 ;
43 [label="mse = 0.0\nsamples = 1\nvalue = 49.154"] ;
41 -> 43 ;
44 [label="colour_lag1 <= 59.013\nmse = 131.027\nsamples = 9\nvalue = 62.316"] ;
32 -> 44 ;
45 [label="mse = 0.0\nsamples = 1\nvalue = 85.0"] ;
44 -> 45 ;
46 [label="colour_lag1 <= 61.308\nmse = 75.045\nsamples = 8\nvalue = 59.481"] ;
44 -> 46 ;
47 [label="mse = 0.0\nsamples = 1\nvalue = 49.462"] ;
46 -> 47 ;
48 [label="Rain_lag1 <= 280.575\nmse = 69.377\nsamples = 7\nvalue = 60.912"] ;
46 -> 48 ;
49 [label="Rain_lag1 <= 257.416\nmse = 32.716\nsamples = 4\nvalue = 56.339"] ;
48 -> 49 ;
50 [label="Rain_lag1 <= 211.248\nmse = 14.422\nsamples = 3\nvalue = 59.041"] ;
49 -> 50 ;
51 [label="mse = 0.0\nsamples = 1\nvalue = 63.538"] ;
50 -> 51 ;
52 [label="colour_lag1 <= 63.583\nmse = 6.46\nsamples = 2\nvalue = 56.792"] ;
50 -> 52 ;
53 [label="mse = 0.0\nsamples = 1\nvalue = 59.333"] ;
52 -> 53 ;
54 [label="mse = -0.0\nsamples = 1\nvalue = 54.25"] ;
52 -> 54 ;
55 [label="mse = 0.0\nsamples = 1\nvalue = 48.233"] ;
49 -> 55 ;
56 [label="colour_lag1 <= 69.59\nmse = 53.198\nsamples = 3\nvalue = 67.009"] ;
48 -> 56 ;
57 [label="colour_lag1 <= 65.885\nmse = 31.687\nsamples = 2\nvalue = 71.014"] ;
56 -> 57 ;
58 [label="mse = 0.0\nsamples = 1\nvalue = 65.385"] ;
57 -> 58 ;
59 [label="mse = -0.0\nsamples = 1\nvalue = 76.643"] ;
57 -> 59 ;
60 [label="mse = 0.0\nsamples = 1\nvalue = 59.0"] ;
56 -> 60 ;
}