digraph Tree {
node [shape=box] ;
0 [label="chla_prevSummer <= 16.788\nmse = 41.005\nsamples = 34\nvalue = 14.765"] ;
1 [label="Rainy_days_winter <= 122.0\nmse = 11.294\nsamples = 21\nvalue = 11.131"] ;
0 -> 1 [labeldistance=2.5, labelangle=45, headlabel="True"] ;
2 [label="TP <= 29.66\nmse = 2.874\nsamples = 5\nvalue = 7.004"] ;
1 -> 2 ;
3 [label="chla_prevSummer <= 9.376\nmse = 2.924\nsamples = 3\nvalue = 7.857"] ;
2 -> 3 ;
4 [label="mse = 0.0\nsamples = 1\nvalue = 10.23"] ;
3 -> 4 ;
5 [label="Rainy_days_winter <= 108.0\nmse = 0.163\nsamples = 2\nvalue = 6.671"] ;
3 -> 5 ;
6 [label="mse = 0.0\nsamples = 1\nvalue = 7.075"] ;
5 -> 6 ;
7 [label="mse = 0.0\nsamples = 1\nvalue = 6.267"] ;
5 -> 7 ;
8 [label="Rainy_days_winter <= 113.0\nmse = 0.066\nsamples = 2\nvalue = 5.723"] ;
2 -> 8 ;
9 [label="mse = 0.0\nsamples = 1\nvalue = 5.467"] ;
8 -> 9 ;
10 [label="mse = 0.0\nsamples = 1\nvalue = 5.98"] ;
8 -> 10 ;
11 [label="WindDays_over_Q0.6 <= 37.5\nmse = 6.936\nsamples = 16\nvalue = 12.421"] ;
1 -> 11 ;
12 [label="Rainy_days_winter <= 143.5\nmse = 1.673\nsamples = 6\nvalue = 14.549"] ;
11 -> 12 ;
13 [label="TP <= 28.521\nmse = 0.247\nsamples = 3\nvalue = 15.769"] ;
12 -> 13 ;
14 [label="WindDays_over_Q0.6 <= 33.0\nmse = 0.036\nsamples = 2\nvalue = 15.435"] ;
13 -> 14 ;
15 [label="mse = 0.0\nsamples = 1\nvalue = 15.246"] ;
14 -> 15 ;
16 [label="mse = 0.0\nsamples = 1\nvalue = 15.623"] ;
14 -> 16 ;
17 [label="mse = 0.0\nsamples = 1\nvalue = 16.436"] ;
13 -> 17 ;
18 [label="TP <= 29.831\nmse = 0.124\nsamples = 3\nvalue = 13.33"] ;
12 -> 18 ;
19 [label="TP <= 25.097\nmse = 0.018\nsamples = 2\nvalue = 13.567"] ;
18 -> 19 ;
20 [label="mse = 0.0\nsamples = 1\nvalue = 13.433"] ;
19 -> 20 ;
21 [label="mse = -0.0\nsamples = 1\nvalue = 13.7"] ;
19 -> 21 ;
22 [label="mse = -0.0\nsamples = 1\nvalue = 12.856"] ;
18 -> 22 ;
23 [label="WindDays_over_Q0.6 <= 47.5\nmse = 5.749\nsamples = 10\nvalue = 11.145"] ;
11 -> 23 ;
24 [label="TP <= 27.438\nmse = 0.525\nsamples = 4\nvalue = 9.109"] ;
23 -> 24 ;
25 [label="chla_prevSummer <= 13.8\nmse = 0.029\nsamples = 2\nvalue = 8.404"] ;
24 -> 25 ;
26 [label="mse = 0.0\nsamples = 1\nvalue = 8.575"] ;
25 -> 26 ;
27 [label="mse = 0.0\nsamples = 1\nvalue = 8.233"] ;
25 -> 27 ;
28 [label="chla_prevSummer <= 13.116\nmse = 0.027\nsamples = 2\nvalue = 9.814"] ;
24 -> 28 ;
29 [label="mse = 0.0\nsamples = 1\nvalue = 9.978"] ;
28 -> 29 ;
30 [label="mse = 0.0\nsamples = 1\nvalue = 9.65"] ;
28 -> 30 ;
31 [label="TP <= 25.293\nmse = 4.627\nsamples = 6\nvalue = 12.502"] ;
23 -> 31 ;
32 [label="chla_prevSummer <= 13.063\nmse = 0.062\nsamples = 2\nvalue = 14.85"] ;
31 -> 32 ;
33 [label="mse = 0.0\nsamples = 1\nvalue = 14.6"] ;
32 -> 33 ;
34 [label="mse = -0.0\nsamples = 1\nvalue = 15.1"] ;
32 -> 34 ;
35 [label="chla_prevSummer <= 10.54\nmse = 2.773\nsamples = 4\nvalue = 11.328"] ;
31 -> 35 ;
36 [label="mse = 0.0\nsamples = 1\nvalue = 13.7"] ;
35 -> 36 ;
37 [label="WindDays_over_Q0.6 <= 52.5\nmse = 1.197\nsamples = 3\nvalue = 10.537"] ;
35 -> 37 ;
38 [label="mse = 0.0\nsamples = 1\nvalue = 9.05"] ;
37 -> 38 ;
39 [label="TP <= 31.004\nmse = 0.136\nsamples = 2\nvalue = 11.281"] ;
37 -> 39 ;
40 [label="mse = 0.0\nsamples = 1\nvalue = 11.65"] ;
39 -> 40 ;
41 [label="mse = 0.0\nsamples = 1\nvalue = 10.911"] ;
39 -> 41 ;
42 [label="chla_prevSummer <= 17.185\nmse = 33.22\nsamples = 13\nvalue = 20.635"] ;
0 -> 42 [labeldistance=2.5, labelangle=-45, headlabel="False"] ;
43 [label="mse = 0.0\nsamples = 1\nvalue = 36.333"] ;
42 -> 43 ;
44 [label="Rainy_days_winter <= 121.5\nmse = 13.74\nsamples = 12\nvalue = 19.327"] ;
42 -> 44 ;
45 [label="mse = 0.0\nsamples = 1\nvalue = 9.35"] ;
44 -> 45 ;
46 [label="WindDays_over_Q0.6 <= 43.5\nmse = 5.118\nsamples = 11\nvalue = 20.233"] ;
44 -> 46 ;
47 [label="WindDays_over_Q0.6 <= 29.5\nmse = 3.197\nsamples = 8\nvalue = 19.259"] ;
46 -> 47 ;
48 [label="WindDays_over_Q0.6 <= 25.0\nmse = 0.418\nsamples = 2\nvalue = 17.092"] ;
47 -> 48 ;
49 [label="mse = 0.0\nsamples = 1\nvalue = 16.446"] ;
48 -> 49 ;
50 [label="mse = 0.0\nsamples = 1\nvalue = 17.738"] ;
48 -> 50 ;
51 [label="Rainy_days_winter <= 153.0\nmse = 2.038\nsamples = 6\nvalue = 19.981"] ;
47 -> 51 ;
52 [label="WindDays_over_Q0.6 <= 35.5\nmse = 0.144\nsamples = 3\nvalue = 18.673"] ;
51 -> 52 ;
53 [label="mse = 0.0\nsamples = 1\nvalue = 18.169"] ;
52 -> 53 ;
54 [label="Rainy_days_winter <= 135.5\nmse = 0.025\nsamples = 2\nvalue = 18.925"] ;
52 -> 54 ;
55 [label="mse = 0.0\nsamples = 1\nvalue = 19.083"] ;
54 -> 55 ;
56 [label="mse = 0.0\nsamples = 1\nvalue = 18.767"] ;
54 -> 56 ;
57 [label="TP <= 30.121\nmse = 0.513\nsamples = 3\nvalue = 21.288"] ;
51 -> 57 ;
58 [label="TP <= 27.85\nmse = 0.054\nsamples = 2\nvalue = 20.8"] ;
57 -> 58 ;
59 [label="mse = 0.0\nsamples = 1\nvalue = 20.567"] ;
58 -> 59 ;
60 [label="mse = 0.0\nsamples = 1\nvalue = 21.033"] ;
58 -> 60 ;
61 [label="mse = -0.0\nsamples = 1\nvalue = 22.264"] ;
57 -> 61 ;
62 [label="Rainy_days_winter <= 147.5\nmse = 0.947\nsamples = 3\nvalue = 22.833"] ;
46 -> 62 ;
63 [label="mse = 0.0\nsamples = 1\nvalue = 21.567"] ;
62 -> 63 ;
64 [label="WindDays_over_Q0.6 <= 46.0\nmse = 0.218\nsamples = 2\nvalue = 23.467"] ;
62 -> 64 ;
65 [label="mse = 0.0\nsamples = 1\nvalue = 23.0"] ;
64 -> 65 ;
66 [label="mse = 0.0\nsamples = 1\nvalue = 23.933"] ;
64 -> 66 ;
}