digraph Tree {
node [shape=box] ;
0 [label="colour_prevSummer <= 36.517\nmse = 326.553\nsamples = 30\nvalue = 43.606"] ;
1 [label="Rain_lag1 <= 123.521\nmse = 15.752\nsamples = 13\nvalue = 24.892"] ;
0 -> 1 [labeldistance=2.5, labelangle=45, headlabel="True"] ;
2 [label="colour_prevSummer <= 23.229\nmse = 1.535\nsamples = 5\nvalue = 21.03"] ;
1 -> 2 ;
3 [label="colour_prevSummer <= 20.083\nmse = 0.909\nsamples = 3\nvalue = 21.806"] ;
2 -> 3 ;
4 [label="colour_prevSummer <= 18.604\nmse = 0.293\nsamples = 2\nvalue = 21.208"] ;
3 -> 4 ;
5 [label="mse = 0.0\nsamples = 1\nvalue = 20.667"] ;
4 -> 5 ;
6 [label="mse = -0.0\nsamples = 1\nvalue = 21.75"] ;
4 -> 6 ;
7 [label="mse = 0.0\nsamples = 1\nvalue = 23.0"] ;
3 -> 7 ;
8 [label="Rain_lag1 <= 89.254\nmse = 0.218\nsamples = 2\nvalue = 19.867"] ;
2 -> 8 ;
9 [label="mse = 0.0\nsamples = 1\nvalue = 20.333"] ;
8 -> 9 ;
10 [label="mse = 0.0\nsamples = 1\nvalue = 19.4"] ;
8 -> 10 ;
11 [label="Rain_lag1 <= 170.98\nmse = 9.491\nsamples = 8\nvalue = 27.306"] ;
1 -> 11 ;
12 [label="colour_prevSummer <= 30.92\nmse = 2.664\nsamples = 3\nvalue = 30.194"] ;
11 -> 12 ;
13 [label="colour_prevSummer <= 26.069\nmse = 2.824\nsamples = 2\nvalue = 29.569"] ;
12 -> 13 ;
14 [label="mse = 0.0\nsamples = 1\nvalue = 31.25"] ;
13 -> 14 ;
15 [label="mse = 0.0\nsamples = 1\nvalue = 27.889"] ;
13 -> 15 ;
16 [label="mse = -0.0\nsamples = 1\nvalue = 31.444"] ;
12 -> 16 ;
17 [label="colour_prevSummer <= 25.417\nmse = 5.575\nsamples = 5\nvalue = 25.572"] ;
11 -> 17 ;
18 [label="Rain_lag1 <= 199.93\nmse = 3.062\nsamples = 2\nvalue = 23.5"] ;
17 -> 18 ;
19 [label="mse = 0.0\nsamples = 1\nvalue = 25.25"] ;
18 -> 19 ;
20 [label="mse = 0.0\nsamples = 1\nvalue = 21.75"] ;
18 -> 20 ;
21 [label="colour_prevSummer <= 30.653\nmse = 2.48\nsamples = 3\nvalue = 26.954"] ;
17 -> 21 ;
22 [label="colour_prevSummer <= 28.076\nmse = 0.077\nsamples = 2\nvalue = 28.056"] ;
21 -> 22 ;
23 [label="mse = 0.0\nsamples = 1\nvalue = 28.333"] ;
22 -> 23 ;
24 [label="mse = -0.0\nsamples = 1\nvalue = 27.778"] ;
22 -> 24 ;
25 [label="mse = 0.0\nsamples = 1\nvalue = 24.75"] ;
21 -> 25 ;
26 [label="Rain_lag1 <= 149.059\nmse = 91.632\nsamples = 17\nvalue = 57.916"] ;
0 -> 26 [labeldistance=2.5, labelangle=-45, headlabel="False"] ;
27 [label="colour_prevSummer <= 41.646\nmse = 31.061\nsamples = 7\nvalue = 64.729"] ;
26 -> 27 ;
28 [label="mse = 0.0\nsamples = 1\nvalue = 53.333"] ;
27 -> 28 ;
29 [label="colour_prevSummer <= 67.91\nmse = 10.987\nsamples = 6\nvalue = 66.628"] ;
27 -> 29 ;
30 [label="Rain_lag1 <= 134.623\nmse = 8.078\nsamples = 4\nvalue = 68.295"] ;
29 -> 30 ;
31 [label="Rain_lag1 <= 103.423\nmse = 0.553\nsamples = 3\nvalue = 69.893"] ;
30 -> 31 ;
32 [label="mse = 0.0\nsamples = 1\nvalue = 70.5"] ;
31 -> 32 ;
33 [label="colour_prevSummer <= 53.021\nmse = 0.553\nsamples = 2\nvalue = 69.59"] ;
31 -> 33 ;
34 [label="mse = 0.0\nsamples = 1\nvalue = 70.333"] ;
33 -> 34 ;
35 [label="mse = -0.0\nsamples = 1\nvalue = 68.846"] ;
33 -> 35 ;
36 [label="mse = 0.0\nsamples = 1\nvalue = 63.5"] ;
30 -> 36 ;
37 [label="Rain_lag1 <= 132.77\nmse = 0.138\nsamples = 2\nvalue = 63.295"] ;
29 -> 37 ;
38 [label="mse = 0.0\nsamples = 1\nvalue = 62.923"] ;
37 -> 38 ;
39 [label="mse = -0.0\nsamples = 1\nvalue = 63.667"] ;
37 -> 39 ;
40 [label="Rain_lag1 <= 151.899\nmse = 78.798\nsamples = 10\nvalue = 53.147"] ;
26 -> 40 ;
41 [label="mse = 0.0\nsamples = 1\nvalue = 38.667"] ;
40 -> 41 ;
42 [label="colour_prevSummer <= 44.393\nmse = 61.667\nsamples = 9\nvalue = 54.756"] ;
40 -> 42 ;
43 [label="colour_prevSummer <= 41.781\nmse = 155.93\nsamples = 2\nvalue = 60.821"] ;
42 -> 43 ;
44 [label="mse = 0.0\nsamples = 1\nvalue = 48.333"] ;
43 -> 44 ;
45 [label="mse = 0.0\nsamples = 1\nvalue = 73.308"] ;
43 -> 45 ;
46 [label="colour_prevSummer <= 62.017\nmse = 21.224\nsamples = 7\nvalue = 53.023"] ;
42 -> 46 ;
47 [label="colour_prevSummer <= 48.462\nmse = 9.44\nsamples = 5\nvalue = 50.627"] ;
46 -> 47 ;
48 [label="mse = 0.0\nsamples = 1\nvalue = 55.75"] ;
47 -> 48 ;
49 [label="colour_prevSummer <= 53.705\nmse = 3.599\nsamples = 4\nvalue = 49.347"] ;
47 -> 49 ;
50 [label="Rain_lag1 <= 216.001\nmse = 2.799\nsamples = 2\nvalue = 50.827"] ;
49 -> 50 ;
51 [label="mse = 0.0\nsamples = 1\nvalue = 49.154"] ;
50 -> 51 ;
52 [label="mse = 0.0\nsamples = 1\nvalue = 52.5"] ;
50 -> 52 ;
53 [label="colour_prevSummer <= 56.972\nmse = 0.018\nsamples = 2\nvalue = 47.867"] ;
49 -> 53 ;
54 [label="mse = 0.0\nsamples = 1\nvalue = 48.0"] ;
53 -> 54 ;
55 [label="mse = -0.0\nsamples = 1\nvalue = 47.733"] ;
53 -> 55 ;
56 [label="colour_prevSummer <= 66.545\nmse = 0.462\nsamples = 2\nvalue = 59.013"] ;
46 -> 56 ;
57 [label="mse = 0.0\nsamples = 1\nvalue = 58.333"] ;
56 -> 57 ;
58 [label="mse = 0.0\nsamples = 1\nvalue = 59.692"] ;
56 -> 58 ;
}