digraph Tree {
node [shape=box] ;
0 [label="chla_lag1 <= 16.773\nmse = 46.969\nsamples = 37\nvalue = 16.771"] ;
1 [label="chla_lag1 <= 8.812\nmse = 23.224\nsamples = 25\nvalue = 13.794"] ;
0 -> 1 [labeldistance=2.5, labelangle=45, headlabel="True"] ;
3 [label="chla_lag1 <= 6.671\nmse = 4.28\nsamples = 6\nvalue = 9.039"] ;
1 -> 3 ;
11 [label="mse = 4.617\nsamples = 3\nvalue = 7.717"] ;
3 -> 11 ;
12 [label="mse = 0.448\nsamples = 3\nvalue = 10.361"] ;
3 -> 12 ;
4 [label="chla_lag1 <= 12.512\nmse = 19.812\nsamples = 19\nvalue = 15.295"] ;
1 -> 4 ;
5 [label="chla_lag1 <= 10.571\nmse = 22.116\nsamples = 8\nvalue = 17.683"] ;
4 -> 5 ;
7 [label="mse = 10.358\nsamples = 5\nvalue = 15.837"] ;
5 -> 7 ;
8 [label="mse = 26.553\nsamples = 3\nvalue = 20.761"] ;
5 -> 8 ;
6 [label="mse = 10.972\nsamples = 11\nvalue = 13.558"] ;
4 -> 6 ;
2 [label="chla_lag1 <= 21.915\nmse = 39.492\nsamples = 12\nvalue = 22.974"] ;
0 -> 2 [labeldistance=2.5, labelangle=-45, headlabel="False"] ;
9 [label="chla_lag1 <= 18.925\nmse = 13.126\nsamples = 8\nvalue = 21.92"] ;
2 -> 9 ;
13 [label="mse = 10.387\nsamples = 4\nvalue = 22.858"] ;
9 -> 13 ;
14 [label="mse = 14.104\nsamples = 4\nvalue = 20.981"] ;
9 -> 14 ;
10 [label="mse = 85.552\nsamples = 4\nvalue = 25.083"] ;
2 -> 10 ;
}